tree
version=v4
num_class=1
num_tree_per_iteration=1
label_index=0
max_feature_idx=254
objective=binary sigmoid:1
feature_names=age_group day_of_week dow_cos dow_sin err_diff err_logratio err_ratio feat_a_1 feat_a_10 feat_a_11 feat_a_12 feat_a_13 feat_a_14 feat_a_15 feat_a_16 feat_a_17 feat_a_18 feat_a_2 feat_a_3 feat_a_4 feat_a_5 feat_a_6 feat_a_7 feat_a_8 feat_a_9 feat_b_1 feat_b_2 feat_b_3 feat_b_4 feat_b_5 feat_b_6 feat_c_1 feat_c_2 feat_c_3 feat_c_4 feat_c_5 feat_c_6 feat_c_7 feat_c_8 feat_d_1 feat_d_2 feat_d_3 feat_d_4 feat_d_5 feat_d_6 feat_e_1 feat_e_10 feat_e_2 feat_e_3 feat_e_4 feat_e_5 feat_e_6 feat_e_7 feat_e_8 feat_e_9 gender history_a_1 history_a_2 history_a_3 history_a_4 history_a_5 history_a_6 history_a_7 history_b_1 history_b_10 history_b_11 history_b_12 history_b_13 history_b_14 history_b_15 history_b_16 history_b_17 history_b_18 history_b_19 history_b_2 history_b_20 history_b_21 history_b_22 history_b_23 history_b_24 history_b_25 history_b_26 history_b_27 history_b_28 history_b_29 history_b_3 history_b_30 history_b_4 history_b_5 history_b_6 history_b_7 history_b_8 history_b_9 hour hour_cos hour_sin inventory_id l_feat_1 l_feat_10 l_feat_11 l_feat_12 l_feat_13 l_feat_14 l_feat_15 l_feat_16 l_feat_17 l_feat_18 l_feat_19 l_feat_2 l_feat_20 l_feat_21 l_feat_22 l_feat_23 l_feat_24 l_feat_25 l_feat_26 l_feat_27 l_feat_3 l_feat_4 l_feat_5 l_feat_6 l_feat_7 l_feat_8 l_feat_9 recon_error_c0 recon_error_c1 z_0_c0 z_0_c1 z_10_c0 z_10_c1 z_11_c0 z_11_c1 z_12_c0 z_12_c1 z_13_c0 z_13_c1 z_14_c0 z_14_c1 z_15_c0 z_15_c1 z_16_c0 z_16_c1 z_17_c0 z_17_c1 z_18_c0 z_18_c1 z_19_c0 z_19_c1 z_1_c0 z_1_c1 z_20_c0 z_20_c1 z_21_c0 z_21_c1 z_22_c0 z_22_c1 z_23_c0 z_23_c1 z_24_c0 z_24_c1 z_25_c0 z_25_c1 z_26_c0 z_26_c1 z_27_c0 z_27_c1 z_28_c0 z_28_c1 z_29_c0 z_29_c1 z_2_c0 z_2_c1 z_30_c0 z_30_c1 z_31_c0 z_31_c1 z_3_c0 z_3_c1 z_4_c0 z_4_c1 z_5_c0 z_5_c1 z_6_c0 z_6_c1 z_7_c0 z_7_c1 z_8_c0 z_8_c1 z_9_c0 z_9_c1 z_abs_0 z_abs_1 z_abs_10 z_abs_11 z_abs_12 z_abs_13 z_abs_14 z_abs_15 z_abs_16 z_abs_17 z_abs_18 z_abs_19 z_abs_2 z_abs_20 z_abs_21 z_abs_22 z_abs_23 z_abs_24 z_abs_25 z_abs_26 z_abs_27 z_abs_28 z_abs_29 z_abs_3 z_abs_30 z_abs_31 z_abs_4 z_abs_5 z_abs_6 z_abs_7 z_abs_8 z_abs_9 z_cos z_diff_0 z_diff_1 z_diff_10 z_diff_11 z_diff_12 z_diff_13 z_diff_14 z_diff_15 z_diff_16 z_diff_17 z_diff_18 z_diff_19 z_diff_2 z_diff_20 z_diff_21 z_diff_22 z_diff_23 z_diff_24 z_diff_25 z_diff_26 z_diff_27 z_diff_28 z_diff_29 z_diff_3 z_diff_30 z_diff_31 z_diff_4 z_diff_5 z_diff_6 z_diff_7 z_diff_8 z_diff_9
feature_infos=[1:8] [1:7] [-0.90096884965896606:1] [-0.97492790222167969:0.97492790222167969] [-48.537147521972656:33.412841796875] [-2.9366734027862549:2.0817646980285645] [0.053041744977235794:8.0186071395874023] [0:14.399999618530273] [0:76.5] [0:37.799999237060547] [0:14] [0:47.700000762939453] [0:7] [0:62.099998474121094] [0:18.899999618530273] [0:3.5999999046325684] [0:47.700000762939453] [0:4.8000001907348633] [0:30.600000381469727] [0:88.199996948242188] [0:86.808601379394531] [0:17.100000381469727] [0:36.900001525878906] [0:63] [0:90] [0:2066.10302734375] [-221.240966796875:0] [0:987.01849365234375] [0:1.3195875883102417] [-764.26318359375:0] [0:86245.0859375] [0:58.849395751953125] [0:35.999992370605469] [0:83] [0:29] [0:47] [0:8] [0:74] [0:32] [0:0.38961037993431091] [0:2] [0:1.7647058963775635] [0:78] [-0.30303031206130981:0] [-0.42253521084785461:0] [0.3611111044883728:65] [-2391.94287109375:0.014285714365541935] [-311604.25:18052.72265625] [1.1363636255264282:170.45454406738281] [-0.10000000149011612:0] [-2.4313726425170898:0.019607843831181526] [-1.701298713684082:0.012987012974917889] [-0.0625:1277.375] [-779.17779541015625:0.02222222276031971] [-587.67742919921875:0.01075268816202879] [1:2] [0:18.709814071655273] [-58.611110687255859:0] [0:20.975608825683594] [-7754.71435546875:0] [-7.9130434989929199:0] [-3826.857177734375:0] [-235.59616088867188:0] [0:41] [0:18] [0:46.5] [0:4.5] [0:18.5] [0:37.5] [0:0.5] [0:46.5] [0:10.5] [0:7.5] [0:6.5] [0:89] [0:1.5] [0:5.5] [0:45] [0:45] [0:7.5] [0:3] [0:28] [0:32] [0:10] [0:26] [0:30.5] [0:33] [0:32.5] [0:17] [0:1] [0:16] [0:33] [0:3] [0:23] [-1:1] [-1:1] [2:95] [1:2] [1:262] [1:1526] [1:5061] [1:2] [1:3245] [1:2590] [1:2] [1:476] [0:6] [0:2] [0:2] [0:2] [0:2] [0:2] [0:1] [0:2] [1:2163] [1:18] [1:5] [1:3] [1:26] [1:1079] [1:903] [1:313] [0:2] [1:476] [0.036301102489233017:206.18405151367188] [0.057863499969244003:174.17582702636719] [0:25.53125] [0:13.84375] [0:50.21875] [0:114.0625] [0:93.3125] [0:14.8046875] [0:212.375] [0:155.25] [0:40.1875] [0:11.2734375] [0:12.7421875] [0:58.75] [0:32.75] [0:114.5] [0:23.203125] [0:124.3125] [0:75.1875] [0:10.8515625] [0:54.25] [0:24.765625] [0:21] [0:207.25] [0:49.9375] [0:5.859375] [0:142.25] [0:14.546875] [0:25.734375] [0:11.7578125] [0:28.5] none [0:18.375] [0:63.65625] [0:26.4375] [0:19.84375] [0:29.375] [0:420.25] [0:16.703125] [0:12.0078125] [0:16.8125] [0:127.4375] [0:31.125] [0:27.359375] [0:48.96875] [0:21.171875] [0:49.84375] [0:13.2578125] [0:48.375] [0:42.84375] [0:110.5] [0:17.859375] [0:40.90625] [0:21.390625] [0:22.15625] [0:135] [0:16.28125] [0:17.484375] [0:20.859375] [0:290] [0:15.7734375] [0:12.4140625] [0:220.5] [0:83.5] [0:245.125] [0:104.1875] [0:24.203125] [0:49.9375] [0:64.0625] [0:93.3125] [0:57.5] [0:40.1875] [0:58.75] [0:87.90625] [0:123.64794921875] [0:75.1875] [0:54.25] [0:207.25] [0:49.84375] [0:142.25] [0:25.734375] [0:28.5] [0:63.65625] [0:25.4560546875] [0:420.25] [0:16.703125] [0:127.4375] [0:17.09375] [0:48.96875] [0:40.90625] [0:24.703125] [0:110.5] [0:135] [0:17.484375] [0:290] [0:15.7734375] [0:139.125] [0:245.125] [0.0023677353747189045:0.78907293081283569] [-24.203125:13.84375] [-49.9375:5.859375] [-17.203125:64.0625] [-93.3125:14.8046875] [-57.5:34.5625] [-40.1875:10.609375] [-12.7421875:58.75] [-21.49072265625:87.90625] [-22.875:123.64794921875] [-75.1875:10.8515625] [-54.25:24.765625] [-21:207.25] [-49.84375:12.109375] [-142.25:13.7564697265625] [-25.734375:10.65625] [-28.5:0] [-18.375:63.65625] [-25.4560546875:17.421875] [-29.375:420.25] [-16.703125:12.0078125] [-16.8125:127.4375] [-17.09375:10.265625] [-48.96875:20.40625] [-40.90625:18.38134765625] [-24.703125:15.06640625] [-110.5:10.640625] [-22.15625:135] [-15.109375:17.484375] [-11.8056640625:290] [-15.7734375:12.4140625] [-139.125:35.65625] [-245.125:57.40625]
tree_sizes=7032 7033 7051

Tree=0
num_leaves=64
num_cat=0
split_feature=56 56 56 57 183 61 56 48 58 56 48 56 56 42 167 56 97 56 48 139 226 56 241 158 56 43 85 57 58 226 57 48 119 0 139 158 43 48 99 120 120 119 119 102 100 233 108 103 60 125 139 56 56 43 226 119 208 239 38 56 99 102 119
split_gain=183234 30494.4 26315.1 10501.5 7088.2 6431.84 4350.42 4243.88 3963.88 3645.85 2365.38 2134.09 2018.34 1884.44 1597.23 1299.03 1262.78 1205.83 1193.99 1140.03 1136.18 993.313 944.603 936.905 898.797 890.385 852.491 833.209 828.9 717.921 711.437 674.233 633.187 596.93 596.418 586.25 582.894 563.783 523.025 472.077 467.481 447.767 411.414 410.443 406.083 393.815 386.647 379.904 369.692 367.6 349.866 346.342 341.021 340.468 327.626 315.842 302.017 300.212 299.475 299.124 299.057 415.166 336.565
threshold=0.074854999780654921 0.23814500123262408 0.033953750506043441 -0.13888889178633687 1.8100585937500002 -7.7857143878936759 0.12798999994993213 4.6022727489471444 1.0000000180025095e-35 0.02168500050902367 4.7159092426300058 0.053024999797344215 0.049803750589489944 1.9445312023162844 0.23162841796875003 0.11942875012755395 1.5000000000000002 0.38487625122070318 4.7159092426300058 0.52172851562500011 -1.4461212158203123 0.14047124981880191 0.97290039062500011 0.0034790039062500004 0.012286250013858082 -1.0000000180025095e-35 0.090392850339412703 -0.47222222387790674 0.018292682245373729 -0.66593933105468739 -0.13888889178633687 17.613636016845707 72.500000000000014 6.5000000000000009 3.0791015625000004 0.11047363281250001 -0.02525252569466829 4.6022727489471444 743.50000000000011 54.500000000000007 580.50000000000011 195.50000000000003 480.50000000000006 3140.5000000000005 709.50000000000011 0.51580810546875011 1.5000000000000002 2321.5000000000005 -0.094202898442745195 0.53784143924713146 4.2128906250000009 0.097569998353719725 0.4721162617206574 -1.0000000180025095e-35 -0.47355651855468744 361.50000000000006 0.24670410156250003 1.0000000180025095e-35 19.452631950378422 0.14622999727725985 764.50000000000011 809.50000000000011 696.50000000000011
decision_type=8 10 10 8 2 10 10 8 10 10 8 10 10 10 2 8 2 10 8 2 2 8 2 2 10 10 10 10 8 2 10 8 2 2 2 2 10 8 2 2 2 2 2 2 2 2 2 2 10 2 2 10 10 10 2 2 2 2 10 10 2 2 2
left_child=2 3 5 6 8 9 16 11 13 24 15 34 32 35 21 36 26 30 42 -6 -14 -12 45 50 -1 41 55 -18 53 -13 -10 -26 -9 58 44 -3 43 51 -22 46 -31 -17 -11 -5 -4 -8 -20 -34 -24 -37 -15 -29 -25 59 -46 -2 -40 -21 -19 -16 61 -58 -62
right_child=1 4 7 10 19 -7 22 12 17 18 14 29 20 23 28 25 27 33 39 57 38 -23 48 52 31 -27 -28 37 -30 40 -32 -33 47 -35 -36 49 -38 -39 56 -41 -42 -43 -44 -45 54 -47 -48 -49 -50 -51 -52 -53 -54 -55 -56 -57 60 -59 -60 -61 62 -63 -64
leaf_value=-1.6105266607742599 -1.5566596284806917 -1.4734293603577819 -1.5248751875140449 -1.4961938169252984 -1.4119390022364902 -1.3768460453730722 -1.4505726713721259 -1.5753829307150604 -1.4156055475003211 -1.5665567136390253 -1.5094892629209919 -1.5004204894208946 -1.5215053527813216 -1.4395964224261193 -1.5372026939570254 -1.485091679857544 -1.4514718490864149 -1.4362794512578558 -1.5591439734800661 -1.3880962467263309 -1.5537390276767225 -1.478759317068699 -1.412998228253644 -1.4866623661553835 -1.5853202185773585 -1.5050112515109351 -1.4669155845101678 -1.4794401515280124 -1.5102564398872211 -1.5322772205998172 -1.4528208651926411 -1.608974092839321 -1.557667589607628 -1.3937381392250991 -1.5127482138509409 -1.5284258436226072 -1.5265128511076627 -1.4904379482694547 -1.5530605512698732 -1.575869177378737 -1.4859139115519899 -1.4517832341858929 -1.5483246597564755 -1.4392172962629011 -1.5386463484918498 -1.4874934145472574 -1.6129559173022912 -1.5396355884490243 -1.4368419343519918 -1.4840916881488213 -1.3996746262814599 -1.4566835975357817 -1.4492697923207303 -1.5515010065502435 -1.5611437555991481 -1.5124802442037788 -1.4361700220868872 -1.3646114503312283 -1.4075340212367755 -1.5081298793330025 -1.5443694946443496 -1.5464425215011706 -1.5147306814011805
leaf_weight=7453.183212429285 735.40206232666969 1878.859313338995 4405.4713513255119 5783.9479098916054 4599.0146303772926 382.54498985409737 3065.4704948365688 4028.8922992050648 1918.9895474910736 7153.1559906899929 7444.4520997703075 10288.156965404749 8689.6602182686329 1890.9648720324039 2793.6479404270649 1412.6321451365948 3557.6162884533405 2193.1268154680729 421.660718947649 3741.2280056476593 7351.4604406356812 4115.3768185079098 2424.0912229120731 1407.3240374028683 15170.505744248629 1455.3797602057457 729.37628683447838 3882.2071756124496 5512.5310472846031 3549.5963401794434 4149.5286385416985 3764.9752239882946 11635.38536426425 3106.5472147464752 2906.5356400609016 1314.2767876982689 1672.1246653497219 5926.6745363473892 1493.2707130014896 14644.518355876207 649.56006655097008 3904.3305493891239 5513.2695884406567 340.79019016027451 8223.5569479167461 985.00731164216995 1598.3114514648914 3940.2661736011505 5721.8604997694492 744.5426105260849 829.44865357875824 3112.9211232662201 1140.256848692894 2449.0154728889465 2042.4138785004616 926.58700811862946 204.72761553525925 2459.2406089603901 1714.1070834696293 1325.6097593307495 2125.457900673151 150.90387001633644 1787.1894570887089
leaf_count=44075 3709 6956 19968 23542 12471 817 10221 21542 5315 37230 31897 42578 38916 5969 13217 5495 11914 6806 2143 8706 36743 15593 6613 5510 83548 6129 2622 14752 23687 16512 13987 22170 58892 7511 12605 6031 7622 23573 7446 78420 2534 13095 27074 1071 39101 3869 9514 18797 17814 2883 2082 10686 3776 12151 10451 4013 632 4790 4524 5649 10301 735 7807
internal_value=-1.51563 -1.46563 -1.55513 -1.48449 -1.42614 -1.58092 -1.4629 -1.53544 -1.44227 -1.58232 -1.50206 -1.52178 -1.54602 -1.46747 -1.51184 -1.48619 -1.47797 -1.42456 -1.57019 -1.39285 -1.53555 -1.49854 -1.4396 -1.44787 -1.59581 -1.47012 -1.51206 -1.47303 -1.52459 -1.50756 -1.44102 -1.59002 -1.55768 -1.41035 -1.53351 -1.49373 -1.50016 -1.47898 -1.54486 -1.579 -1.52507 -1.4606 -1.55861 -1.49299 -1.53763 -1.45951 -1.60169 -1.5531 -1.42972 -1.51233 -1.42734 -1.46929 -1.46986 -1.53663 -1.54311 -1.53197 -1.53355 -1.37874 -1.42361 -1.52782 -1.52675 -1.48257 -1.5308
internal_weight=231939 102365 129575 69277.1 33087.5 56102.1 31067.2 73472.5 22288 55719.6 38209.8 32065.3 41407.2 9205.67 23640.6 14569.2 18870.8 13082.3 29330.9 10799.5 21802.7 11559.8 12196.4 5267.99 26388.7 6772.34 2391.37 16479.4 12080.8 14487.3 6068.52 18935.5 19604.5 7013.78 17578 3937.68 7796.86 12921.8 13113 16664.5 4199.16 5316.96 12666.4 6124.74 14671.4 4050.48 2019.97 15575.7 8145.95 2058.82 2720.41 6995.13 2547.58 6568.27 10266 1661.99 5761.55 6200.47 3907.23 4119.26 4268.28 355.631 3912.65
internal_count=1016802 366251 650551 268934 97317 304991 109786 345560 71350 304174 159148 143749 201811 33207 102194 56954 71269 38143 154381 25967 102580 47490 38517 17337 149793 24719 10344 60925 54704 61624 19302 105718 99231 18841 82125 15870 32235 49011 63664 90077 19046 18590 64304 24613 69520 14090 11657 77689 24427 8914 8051 25438 9286 31017 49552 7722 26921 13496 11330 18866 19475 1367 18108
is_linear=0
shrinkage=1


Tree=1
num_leaves=64
num_cat=0
split_feature=56 96 96 56 56 56 226 96 0 195 96 96 151 56 96 108 96 62 96 96 96 96 56 56 108 56 183 119 56 120 60 57 60 120 119 36 0 56 96 96 96 96 226 56 233 108 118 43 96 61 48 120 48 38 48 0 38 56 121 103 48 96 96
split_gain=127830 46120.1 30074.7 12821.1 11579.3 10413.8 7919.36 7284.96 6905.51 4049.5 4044.48 2850.52 2421.54 2355.89 2347.03 2196.66 2148.25 2106.46 1903.61 1951.25 1892.97 1760.16 1744.86 1663.44 1616.6 1571.94 1559.98 1199.74 1180.73 1134.86 1097.62 1015.82 973.291 969.587 951.574 934.53 900.057 894.028 877.025 1099.63 1065.36 890.61 835.547 826.92 816.88 1641.1 814.646 777.32 729.723 723.684 701.776 666.073 641.699 634 561.205 550.583 518.896 510.687 510.35 506.603 490.592 488.686 532.144
threshold=0.067062500864267363 20.000000000000004 20.000000000000004 0.031349999830126769 0.15246624499559405 0.19086125493049624 -0.38543701171874994 36.500000000000007 5.5000000000000009 4.7231445312500009 42.500000000000007 33.500000000000007 0.022613525390625003 0.034967500716447837 67.000000000000014 1.5000000000000002 30.000000000000004 -0.52884617447853077 42.500000000000007 36.500000000000007 36.500000000000007 67.000000000000014 0.41017250716686254 0.34260751307010656 1.5000000000000002 0.017331250011920932 1.5112304687500002 377.50000000000006 0.098738748580217375 431.50000000000006 -0.036231884732842438 -1.0000000180025095e-35 -0.021739130839705464 453.50000000000006 378.50000000000006 5.3643412590026864 5.5000000000000009 1.0000000180025095e-35 42.500000000000007 67.000000000000014 36.500000000000007 38.000000000000007 -1.9766387939453123 0.3247199952602387 0.49621582031250006 1.5000000000000002 10.500000000000002 -1.0000000180025095e-35 36.500000000000007 -47.071428298950188 3.6931818723678593 478.50000000000006 4.829545497894288 8.0305342674255389 4.6022727489471444 6.5000000000000009 13.535091400146486 0.10585499927401544 255.50000000000003 1635.5000000000002 4.3750000000000009 38.000000000000007 67.000000000000014
decision_type=8 2 2 10 10 10 2 2 2 2 2 2 2 10 2 2 2 10 2 2 2 2 10 10 2 10 2 2 10 2 8 10 10 2 2 10 2 10 2 2 2 2 2 10 2 2 2 10 2 10 8 2 8 10 8 2 10 8 2 2 8 2 2
left_child=1 13 5 9 6 28 18 29 11 17 15 16 26 37 50 -9 -6 25 19 42 27 57 47 60 -11 61 53 -8 -2 44 -21 -18 -17 49 -29 -16 58 -1 40 -40 -27 -42 -4 48 -5 -46 56 -13 -14 -26 -12 -35 -30 -10 -15 -43 -24 -20 -22 -36 -7 -3 -63
right_child=2 3 4 7 8 23 20 10 12 24 14 22 43 54 35 32 31 -19 21 30 36 -23 46 -25 33 38 -28 34 52 -31 -32 -33 -34 51 59 -37 -38 -39 39 -41 41 55 -44 -45 45 -47 -48 -49 -50 -51 -52 -53 -54 -55 -56 -57 -58 -59 -60 -61 -62 62 -64
leaf_value=0.19995111815225119 0.054509524214775652 0.070836223198923007 0.15860633748595576 0.082366357715202565 0.16373244387961078 0.14611620379429333 0.087909331650416533 0.088156286326660505 0.159945602181228 0.087378854470189712 0.10018110120500168 0.1540937409067985 0.1445764000547296 0.043123329568641282 0.084925445074265415 0.14895773788042385 0.14416286086345062 0.21039906567379527 0.10693127558743712 0.18417118019886911 0.10689507742857839 0.17481573113141669 0.14534665957110943 0.17276185769530167 0.011771402187319709 0.063142539989480259 0.20998746673673738 0.20047206514370505 0.096593868194350757 0.099638585627953247 0.15930338778517431 0.0801709007703683 0.12675928742322123 0.13213146174131699 0.092874109934783705 0.14366441760558396 0.14452399216004691 0.0051594009785485978 0.054345309415529619 0.10579039924001261 0.10926425111481063 0.063767181943410453 0.11982051422597229 0.18614766811165867 0.1068092295486367 0.043517208304384013 0.20035329666176427 0.11592692516928026 0.17537792765785187 0.18337433371185469 0.071833745144819702 0.042940027392688103 0.067572090008591115 0.18897653465256101 0.023909197262166237 0.095541981776341031 0.18288295997983631 0.14006717169469171 0.17724238825397184 0.12386669947485036 0.10302154729288354 0.043193460606705973 0.092188193572743257
leaf_weight=58.128730714321136 7801.998220205307 4188.8611399382353 2418.2603874504566 7172.7973551899195 1607.6715570390224 1067.5213722735643 6322.743300139904 2961.5815135538578 2437.6482419222593 1177.0460912883282 3367.5751770138741 3620.4410222321749 4516.1110895425081 7605.3528698831797 909.33988328278065 7384.3256803900003 796.2994222342968 285.26316599547863 3599.7420628815889 7657.8138631880283 3226.459273442626 1818.8343141973019 1969.8433135151863 2983.3836589306593 4898.5891831070185 3227.5287796705961 9976.8012581765652 337.00955283641815 3845.8254732042551 4688.9059893339872 10815.037195920944 2834.8168697208166 15235.916391268373 280.74421761929989 1950.3793789297342 2717.3784233182669 6081.6612876653671 15611.989447772503 4665.759609952569 1337.818112924695 5892.3392843008041 2486.8935155570507 3326.9475033730268 3915.979565128684 1310.2010478377342 4694.9554143995047 2506.8973857462406 2144.938632324338 3427.6344328224659 61.225263297557831 6271.6205070614815 821.61120198667049 3803.2176652252674 9033.4106414020061 7606.0894782245159 3047.2683232575655 1794.759520187974 1744.0552183389664 282.22893042862415 4196.2643185257912 1781.5297073423862 5210.6664232760668 620.37394452095032
leaf_count=112 37875 21060 7431 33004 4623 3318 27800 13291 7178 5501 14205 11184 14609 39013 4147 25468 2509 516 14314 19942 13147 5186 6176 7693 29389 16272 19189 827 15372 20038 33731 12262 58701 1127 8350 9702 20768 93718 24180 5816 25300 12523 12590 9292 5601 24882 5361 8204 9298 150 29870 4471 17422 21814 42157 13752 4430 5774 783 15750 6881 28552 2907
internal_value=0.108208 0.0725788 0.143881 0.0898472 0.154929 0.0897053 0.138768 0.10493 0.172107 0.0674531 0.117085 0.14643 0.18542 0.0195019 0.094664 0.128707 0.115593 0.0753248 0.154983 0.161692 0.116043 0.132278 0.159841 0.14663 0.0337797 0.0740619 0.195468 0.103441 0.0682095 0.0784973 0.169622 0.0942401 0.134012 0.02336 0.118572 0.128964 0.132858 0.0058947 0.0819476 0.0658249 0.0885479 0.0957178 0.136171 0.167234 0.0709679 0.0573417 0.178132 0.139917 0.157887 0.0139263 0.0817466 0.0657542 0.0821745 0.182822 0.033518 0.0812774 0.163286 0.11777 0.112603 0.114049 0.119214 0.0577979 0.048421
internal_weight=251442 125798 125644 94916.6 104361 21283.5 53777.4 56714.6 50583.3 38202 38847.7 17275.7 33307.6 30881.6 13265.9 25581.8 5238.79 30962.8 31380.7 24218.1 22396.7 7162.63 12036.9 5832.43 7239.22 30677.5 21447.9 12806.4 15451 17866.9 18472.9 3631.12 22620.2 6062.17 6483.65 3626.72 9590.35 15670.1 20657.6 6003.58 14654 11426.5 5745.21 11859.7 13178 6005.16 6271.5 5765.38 7943.75 4959.81 9639.2 1102.36 7649.04 11471.1 15211.4 5534.16 3764.6 5343.8 3508.69 6146.64 2849.05 10019.9 5831.04
internal_count=1016508 605425 411083 430425 322522 88561 186393 238909 136129 191516 155384 54749 81380 175000 57924 97460 19394 150878 98968 73694 87425 25274 35355 17892 40638 150362 48181 52727 70669 83525 53673 14771 84169 35137 24927 13849 34698 93830 97843 29996 67847 51575 20021 33199 63487 30483 15967 19388 23907 29539 44075 5598 32794 28992 81170 26275 10606 20088 13930 24100 10199 52519 31459
is_linear=0
shrinkage=0.05


Tree=2
num_leaves=64
num_cat=0
split_feature=74 96 96 241 58 58 74 74 58 108 74 59 96 120 74 42 96 74 74 96 134 0 96 150 96 59 74 74 224 96 96 96 96 96 29 108 38 120 58 85 96 96 103 58 42 119 74 108 96 96 42 29 58 29 44 96 74 96 96 96 25 45 42
split_gain=74884.3 42769.1 17850.3 9078.43 8289.75 8274.61 6495.54 6285.2 4317.87 4082.73 2676.25 3127.3 2225.78 1987.55 1838.15 1743.78 1710.12 1566.33 1536.9 1403.34 1255.03 1171.61 1169.42 1157 1155.08 1152.62 1145.72 1119.84 1111.27 1101.46 1091.43 1090.68 1613.96 1126.33 1081.33 956.032 906.059 892.338 850.789 806.892 804.94 767.234 718.584 651.159 645.818 632.297 622.029 587.301 582.632 696.966 592.103 554.626 535.638 532.084 518.158 515.295 504.019 497.988 552.168 475.068 460.61 455.756 444.815
threshold=0.32968714833259588 15.000000000000002 20.000000000000004 -2.2255859374999996 0.10365853458642961 0.054878048598766334 2.3445758819580083 1.0120813250541689 0.018292682245373729 1.5000000000000002 0.17299374938011172 -92.928569793701158 42.500000000000007 431.50000000000006 0.79489907622337352 6.2421908378601083 33.500000000000007 0.58176627755165111 0.20100205391645434 36.500000000000007 1.3374023437500002 6.5000000000000009 30.000000000000004 1.2944335937500002 67.000000000000014 -66.499999999999986 0.15271954983472827 0.14063335210084918 -0.76928710937499989 41.500000000000007 33.500000000000007 41.500000000000007 30.000000000000004 67.000000000000014 -0.55263158679008473 1.5000000000000002 18.316190719604496 482.50000000000006 0.067073170095682158 0.08461614698171617 42.500000000000007 30.000000000000004 2332.5000000000005 0.042682925239205367 1.9445312023162844 604.50000000000011 0.83992859721183788 1.5000000000000002 67.000000000000014 44.500000000000007 3.8942816257476811 -4.6052632331848136 1.0000000180025095e-35 -0.42982456088066096 -0.14788732677698133 36.500000000000007 0.086423449218273177 42.500000000000007 67.000000000000014 42.500000000000007 2.0773196220397954 42.430555343627937 6.1190426349639901
decision_type=8 2 2 2 10 10 10 10 8 2 10 10 2 2 10 10 2 10 10 2 2 2 2 2 2 10 10 10 2 2 2 2 2 2 10 2 10 2 10 10 2 2 2 10 10 2 10 2 2 2 10 10 10 10 10 2 10 2 2 2 10 10 10
left_child=1 18 7 9 6 10 8 38 16 53 11 31 26 27 20 21 35 19 25 -10 40 30 -12 44 -14 43 -7 28 -11 54 41 32 -5 56 36 -4 -9 -15 51 -22 -6 -8 -39 -1 -18 -29 -46 -28 49 -31 -50 -2 -43 -3 -24 -19 -33 -21 -59 -58 -25 -37 -35
right_child=2 3 4 5 14 12 15 34 17 13 22 -13 24 37 -16 -17 23 55 -20 57 39 -23 29 60 -26 -27 47 45 -30 48 -32 33 -34 62 -36 61 -38 42 -40 -41 -42 52 -44 -45 46 -47 -48 -49 50 -51 -52 -53 -54 -55 -56 -57 59 58 -60 -61 -62 -63 -64
leaf_value=0.0071691819806237681 0.050131431548706501 0.10178396515017321 0.061088131170184502 0.05562733747979242 0.16104087906430276 0.10376711814975786 0.15530546458963773 0.089862597741851402 0.10010943816431478 0.18218043093835842 0.071407406746901561 0.1731641388049813 0.080595602495930563 0.12834488788727763 0.17880459503615431 0.17013357270766832 0.088974778322435888 0.1309110774297009 0.036698766054211941 0.1368542469575946 0.092973937602531337 0.16438524326315931 0.11562605969278941 0.13777996096099829 0.13037472593378083 0.16117510480131125 0.098592831027897954 0.039522491375567625 0.015897771428650148 0.09460808758020163 0.1405243120632681 0.046321179422772932 0.089775038339045876 0.075032254247397928 0.16405650043448525 0.1254517503605099 0.1379837714947775 0.031093792941034471 0.079654013500340487 0.1537625633501577 0.12947504449176392 0.068787063988476657 0.087940373214273421 0.025609963090889705 0.10063495521241028 0.070958577300280323 0.12943345535580694 0.13224994409650079 0.083102581725404023 0.066175844488235921 0.13328112916224349 0.086993182924216497 0.12733341462010861 0.19261308054486578 0.076238172908118684 0.1502599384334134 0.076629015145943655 0.10268779238572717 0.14082863904269391 0.054528629945347407 0.1094747473739815 0.090474789930286445 0.11933123026105355
leaf_weight=14471.661916866899 7861.150359749794 3076.2164638191462 2717.3667480200529 4743.818010494113 10765.052183493972 5999.3478502929211 503.31049093604088 1983.5201114416122 5907.8446051478386 101.44515837728977 4371.4993368834257 776.34586156904697 5788.4466644525528 757.22076085209846 7852.066012904048 7337.7142210751772 4952.1033219695091 5947.7479323446751 11613.617844939232 8331.5407562702894 1493.6412881612778 3228.0040049701929 9061.589163467288 4598.08774548769 1463.2490580826998 131.53882072865963 1434.4082201868296 5397.9442852586508 5263.1864390969276 5476.448131531477 5771.3008387833834 5705.0837097465992 12856.785606756806 1225.4875036776066 1477.1387893259525 1117.5616448819637 1949.8775615394115 911.19243639707565 5676.9444301724434 867.97048045694828 2521.6215431392193 1355.8223144114017 1431.1635769754648 7153.1847381144762 4759.9632060229778 2276.8912251889706 3133.7288262695074 15110.685099899769 1061.0631434172392 3576.3156687915325 1340.6698172539473 1174.5748617649078 551.88415890932083 170.68925662338734 928.53340017795563 8472.5669814050198 4651.7004745900631 2812.0884627699852 1452.0098358988762 5130.8903375118971 2133.7347645908594 5844.1305474340916 1068.5890475660563
leaf_count=85312 36935 12106 11804 22894 23862 22404 1161 7035 21592 166 19114 1408 23945 2521 13415 14257 18931 16858 58955 23826 5568 6552 31652 13026 4497 264 5344 27605 30308 21435 14729 29197 53362 5328 3216 3427 5148 4696 22271 2246 7156 5541 5917 38486 17658 10102 9272 45739 4301 16010 4241 4668 1544 274 3920 20683 20438 10022 4025 24917 7474 22323 3854
internal_value=0.0961429 0.0716555 0.124557 0.0865583 0.132866 0.0931262 0.12527 0.0814293 0.117487 0.0554637 0.0827127 0.0739276 0.114782 0.0451666 0.159018 0.151078 0.103499 0.129913 0.0220125 0.120261 0.149078 0.13881 0.095014 0.112006 0.0906566 0.0141716 0.122538 0.0366067 0.0190755 0.0998227 0.128701 0.0717453 0.080575 0.0630015 0.127509 0.0862828 0.113746 0.0811534 0.064476 0.115371 0.15506 0.100354 0.0658494 0.01327 0.103182 0.0488567 0.112083 0.129338 0.0892168 0.0833844 0.111157 0.0549323 0.0857819 0.106617 0.111973 0.142289 0.0581508 0.129704 0.115705 0.0650443 0.128826 0.0961069 0.0957099
internal_weight=269079 144527 124552 111157 104429 91771 80928.5 20123.2 62180.5 19385.9 61974.8 36158.7 29796.1 16139 23500.4 18748 29256.7 32923.8 33370 18503.5 15648.3 11410.3 25816.1 19577.6 7251.7 21756.4 22544.4 13039.5 5364.63 21444.6 8182.32 35382.4 17600.6 17781.8 5410.54 9679.06 3933.4 3099.58 14712.7 2361.61 13286.7 2411.02 2342.36 21624.8 12845.8 7674.84 7893.69 16545.1 11454.5 9052.76 2401.73 9035.73 1907.71 3246.91 9990.12 14420.3 15487.7 12595.6 4264.1 9782.59 6731.82 6961.69 2294.08
internal_count=1016937 640712 376225 457695 296952 364000 244705 79273 200921 93695 262071 161398 101929 81315 52247 43784 103915 97006 183017 59465 38832 29527 100673 66361 28442 124062 73487 68181 30474 81559 22975 159990 76256 83734 15399 37554 12183 13134 63874 7814 31018 8246 10613 123798 45861 37707 26930 51083 45987 37445 8542 41603 7085 12380 35572 37541 74552 37873 14047 45355 20500 25750 9182
is_linear=0
shrinkage=0.05


end of trees

feature_importances:
inventory_id=38
history_a_1=26
history_b_2=11
feat_e_3=9
history_a_3=8
l_feat_5=8
l_feat_2=7
l_feat_6=7
age_group=5
feat_d_4=5
z_diff_11=5
feat_c_8=4
feat_d_5=4
history_a_2=4
feat_b_5=3
history_a_5=3
l_feat_15=3
z_15_c1=3
history_a_4=2
history_a_6=2
history_b_3=2
l_feat_11=2
l_feat_14=2
z_24_c0=2
z_6_c1=2
z_diff_18=2
z_diff_25=2
feat_b_1=1
feat_c_6=1
feat_d_6=1
feat_e_1=1
history_a_7=1
l_feat_1=1
l_feat_12=1
l_feat_4=1
l_feat_7=1
recon_error_c1=1
z_13_c0=1
z_20_c0=1
z_20_c1=1
z_28_c1=1
z_abs_13=1
z_abs_25=1
z_diff_1=1
z_diff_23=1

parameters:
[boosting: gbdt]
[objective: binary]
[metric: auc,binary_logloss]
[tree_learner: serial]
[device_type: cpu]
[data_sample_strategy: bagging]
[data: ]
[valid: ]
[num_iterations: 5000]
[learning_rate: 0.05]
[num_leaves: 64]
[num_threads: 0]
[seed: 0]
[deterministic: 0]
[force_col_wise: 0]
[force_row_wise: 0]
[histogram_pool_size: -1]
[max_depth: -1]
[min_data_in_leaf: 200]
[min_sum_hessian_in_leaf: 0.001]
[bagging_fraction: 0.9]
[pos_bagging_fraction: 1]
[neg_bagging_fraction: 1]
[bagging_freq: 1]
[bagging_seed: 3]
[bagging_by_query: 0]
[feature_fraction: 0.9]
[feature_fraction_bynode: 1]
[feature_fraction_seed: 2]
[extra_trees: 0]
[extra_seed: 6]
[early_stopping_round: 0]
[early_stopping_min_delta: 0]
[first_metric_only: 0]
[max_delta_step: 0]
[lambda_l1: 0]
[lambda_l2: 1]
[linear_lambda: 0]
[min_gain_to_split: 0]
[drop_rate: 0.1]
[max_drop: 50]
[skip_drop: 0.5]
[xgboost_dart_mode: 0]
[uniform_drop: 0]
[drop_seed: 4]
[top_rate: 0.2]
[other_rate: 0.1]
[min_data_per_group: 100]
[max_cat_threshold: 32]
[cat_l2: 10]
[cat_smooth: 10]
[max_cat_to_onehot: 4]
[top_k: 20]
[monotone_constraints: ]
[monotone_constraints_method: basic]
[monotone_penalty: 0]
[feature_contri: ]
[forcedsplits_filename: ]
[refit_decay_rate: 0.9]
[cegb_tradeoff: 1]
[cegb_penalty_split: 0]
[cegb_penalty_feature_lazy: ]
[cegb_penalty_feature_coupled: ]
[path_smooth: 0]
[interaction_constraints: ]
[verbosity: -1]
[saved_feature_importance_type: 0]
[use_quantized_grad: 0]
[num_grad_quant_bins: 4]
[quant_train_renew_leaf: 0]
[stochastic_rounding: 1]
[linear_tree: 0]
[max_bin: 255]
[max_bin_by_feature: ]
[min_data_in_bin: 3]
[bin_construct_sample_cnt: 200000]
[data_random_seed: 1]
[is_enable_sparse: 1]
[enable_bundle: 1]
[use_missing: 1]
[zero_as_missing: 0]
[feature_pre_filter: 1]
[pre_partition: 0]
[two_round: 0]
[header: 0]
[label_column: ]
[weight_column: ]
[group_column: ]
[ignore_column: ]
[categorical_feature: ]
[forcedbins_filename: ]
[precise_float_parser: 0]
[parser_config_file: ]
[objective_seed: 5]
[num_class: 1]
[is_unbalance: 0]
[scale_pos_weight: 5.15427]
[sigmoid: 1]
[boost_from_average: 1]
[reg_sqrt: 0]
[alpha: 0.9]
[fair_c: 1]
[poisson_max_delta_step: 0.7]
[tweedie_variance_power: 1.5]
[lambdarank_truncation_level: 30]
[lambdarank_norm: 1]
[label_gain: ]
[lambdarank_position_bias_regularization: 0]
[eval_at: ]
[multi_error_top_k: 1]
[auc_mu_weights: ]
[num_machines: 1]
[local_listen_port: 12400]
[time_out: 120]
[machine_list_filename: ]
[machines: ]
[gpu_platform_id: -1]
[gpu_device_id: -1]
[gpu_use_dp: 0]
[num_gpu: 1]

end of parameters

pandas_categorical:null
