tree
version=v4
num_class=1
num_tree_per_iteration=1
label_index=0
max_feature_idx=133
objective=binary sigmoid:1
feature_names=err_diff err_logratio err_ratio recon_error_c0 recon_error_c1 z_0_c0 z_0_c1 z_10_c0 z_10_c1 z_11_c0 z_11_c1 z_12_c0 z_12_c1 z_13_c0 z_13_c1 z_14_c0 z_14_c1 z_15_c0 z_15_c1 z_16_c0 z_16_c1 z_17_c0 z_17_c1 z_18_c0 z_18_c1 z_19_c0 z_19_c1 z_1_c0 z_1_c1 z_20_c0 z_20_c1 z_21_c0 z_21_c1 z_22_c0 z_22_c1 z_23_c0 z_23_c1 z_24_c0 z_24_c1 z_25_c0 z_25_c1 z_26_c0 z_26_c1 z_27_c0 z_27_c1 z_28_c0 z_28_c1 z_29_c0 z_29_c1 z_2_c0 z_2_c1 z_30_c0 z_30_c1 z_31_c0 z_31_c1 z_3_c0 z_3_c1 z_4_c0 z_4_c1 z_5_c0 z_5_c1 z_6_c0 z_6_c1 z_7_c0 z_7_c1 z_8_c0 z_8_c1 z_9_c0 z_9_c1 z_abs_0 z_abs_1 z_abs_10 z_abs_11 z_abs_12 z_abs_13 z_abs_14 z_abs_15 z_abs_16 z_abs_17 z_abs_18 z_abs_19 z_abs_2 z_abs_20 z_abs_21 z_abs_22 z_abs_23 z_abs_24 z_abs_25 z_abs_26 z_abs_27 z_abs_28 z_abs_29 z_abs_3 z_abs_30 z_abs_31 z_abs_4 z_abs_5 z_abs_6 z_abs_7 z_abs_8 z_abs_9 z_cos z_diff_0 z_diff_1 z_diff_10 z_diff_11 z_diff_12 z_diff_13 z_diff_14 z_diff_15 z_diff_16 z_diff_17 z_diff_18 z_diff_19 z_diff_2 z_diff_20 z_diff_21 z_diff_22 z_diff_23 z_diff_24 z_diff_25 z_diff_26 z_diff_27 z_diff_28 z_diff_29 z_diff_3 z_diff_30 z_diff_31 z_diff_4 z_diff_5 z_diff_6 z_diff_7 z_diff_8 z_diff_9
feature_infos=[-26.535514831542969:32.587356567382812] [-2.9661324024200439:2.1717500686645508] [0.051502075046300888:8.773625373840332] [0.036219045519828796:205.51509094238281] [0.06149112805724144:172.927734375] [0:29.34375] [0:14.2265625] [0:50.09375] [0:112.5625] [0:93.25] [0:16.546875] [0:211.625] [0:154.375] [0:41.71875] [0:11.0234375] [0:12.7421875] [0:65.5625] [0:30.375] [0:101.6875] [0:23.015625] [0:123.3125] [0:74.375] [0:10.1328125] [0:50.125] [0:24.4375] [0:20.734375] [0:206] [0:53.34375] [0:6.1953125] [0:141.125] [0:15.7890625] [0:22.984375] [0:11.15625] [0:28.421875] none [0:14.15625] [0:62.625] [0:19.234375] [0:19.640625] [0:28.890625] [0:419.75] [0:14.921875] [0:11.2421875] [0:15.8671875] [0:126.375] [0:30.875] [0:26.140625] [0:52.09375] [0:19.15625] [0:35.0625] [0:14.6875] [0:50.09375] [0:44.125] [0:110.5] [0:29] [0:35.6875] [0:16.890625] [0:22.265625] [0:133.875] [0:13.15625] [0:13.6484375] [0:16.484375] [0:289.25] [0:13.9765625] [0:14.0546875] [0:219.875] [0:81.25] [0:244.5] [0:98.25] [0:29.34375] [0:53.34375] [0:62.46875] [0:93.25] [0:57.25] [0:41.71875] [0:65.5625] [0:71.3125] [0:123.3125] [0:74.375] [0:50.125] [0:206] [0:35.0625] [0:141.125] [0:22.984375] [0:28.421875] [0:62.625] [0:19.640625] [0:419.75] [0:14.921875] [0:126.375] [0:14.4453125] [0:52.09375] [0:35.6875] [0:31.8125] [0:110.5] [0:133.875] [0:13.6484375] [0:289.25] [0:13.9765625] [0:138.625] [0:244.5] [0.00051430804887786508:0.79227882623672485] [-29.34375:13.9921875] [-53.34375:6.1953125] [-33.5:62.46875] [-93.25:16.546875] [-57.25:41.9697265625] [-41.71875:9.9609375] [-12.7421875:65.5625] [-23.05853271484375:71.3125] [-23.015625:123.3125] [-74.375:9.9462890625] [-50.125:24.4375] [-20.734375:206] [-35.0625:13.1171875] [-141.125:15.7890625] [-22.984375:9.9542236328125] [-28.421875:0] [-13.125:62.625] [-19.234375:19.640625] [-28.890625:419.75] [-14.921875:11.2421875] [-15.8671875:126.375] [-14.4453125:10.72607421875] [-52.09375:12.7109375] [-35.6875:14.87109375] [-31.8125:15.9375] [-110.5:10.7890625] [-22.265625:133.875] [-13.15625:13.6484375] [-14.517578125:289.25] [-13.9765625:12.41015625] [-138.625:57.53125] [-244.5:55.1875]
tree_sizes=7089

Tree=0
num_leaves=64
num_cat=0
split_feature=16 62 67 46 33 30 70 65 62 87 66 46 7 112 52 10 65 13 87 87 33 48 66 13 87 65 46 29 46 18 45 55 11 109 46 37 87 29 18 18 62 112 29 2 65 48 3 51 87 30 45 46 128 13 57 32 3 11 38 87 38 112 62
split_gain=4.55553e+06 1.96049e+06 1.05025e+06 959400 590270 455203 449870 368762 351464 323815 216157 206725 191209 185649 181826 172787 167984 164427 183988 116961 113609 108975 102359 101169 96668.6 96367.7 80261.9 77285.5 71985.7 70975.6 67724.4 62655.6 61706.1 59303.7 56584 55663.3 58999.1 54618.8 51432.1 50273.4 49062.6 49820.2 48238.4 46502.5 46392.4 55289.3 44761.1 42443.8 40526.3 39630.4 37206.9 36548.6 35622.6 34803.5 34453.7 31565.7 31321.5 31070.5 30236.6 29259.6 29127.4 28510.8 37063.9
threshold=1.0893554687500002 2.5244140625000004 0.97875976562500011 0.23052978515625003 0.39379882812500006 0.61987304687500011 1.0000000180025095e-35 0.70483398437500011 1.7329101562500002 1.2690429687500002 1.3745117187500002 1.0000000180025095e-35 0.066162109375000014 1.2026367187500002 0.061614990234375007 1.0649414062500002 0.16174316406250003 1.3344726562500002 0.13800048828125003 0.20513916015625003 0.12933349609375003 0.23040771484375003 0.63305664062500011 1.0288085937500002 6.6135253906250009 0.34057617187500006 0.29577636718750006 0.66723632812500011 1.2670898437500002 0.55395507812500011 1.3608398437500002 7.7597656250000009 0.43676757812500006 2.7418212890625004 2.0419921875000004 1.2397460937500002 1.0708007812500002 0.76245117187500011 3.9326171875000004 4.1855468750000009 1.1655273437500002 1.0606689453125002 0.70190429687500011 0.76169857382774364 0.11071777343750001 0.36633300781250006 0.34498359262943273 0.0062866210937500009 0.56616210937500011 0.11093139648437501 0.18731689453125003 1.5053710937500002 1.0050048828125002 1.0000000180025095e-35 1.0688476562500002 1.0000000180025095e-35 0.23974669724702838 0.0049133300781250009 0.027526855468750003 1.9272460937500002 0.027526855468750003 1.9138183593750002 0.69873046875000011
decision_type=2 2 2 2 2 2 2 2 2 2 2 2 2 2 2 2 2 2 2 2 2 2 2 2 2 2 2 2 2 2 2 2 2 2 2 2 2 2 2 2 2 2 2 2 2 2 2 2 2 2 2 2 2 2 2 2 2 2 2 2 2 2 2
left_child=1 2 6 5 23 9 7 15 11 22 27 43 -7 24 26 19 32 18 57 44 -18 39 60 34 51 -24 -8 50 55 46 40 -19 -12 42 -3 36 49 -14 52 -13 -22 -42 -16 -2 45 -1 -10 -46 -27 54 -5 -6 -17 -29 -20 -21 -23 -9 -28 -11 -4 62 -39
right_child=8 4 3 10 13 12 14 17 29 59 16 21 37 -15 33 38 20 31 35 28 30 56 25 -25 -26 48 58 53 -30 -31 -32 -33 -34 -35 -36 -37 -38 61 -40 -41 41 -43 -44 -45 47 -47 -48 -49 -50 -51 -52 -53 -54 -55 -56 -57 -58 -59 -60 -61 -62 -63 -64
leaf_value=-2.9384107095728744 -2.1368450515172892 -2.1312554289244714 -2.1870198961195424 -2.596495119886332 -1.9228821745046871 -2.3815178162795583 -2.4741008205044661 -2.8956327775124624 -2.3044625633302807 -2.1815889848375862 -2.9946783551637823 -2.2505072090164724 -2.8654108388979331 -2.4041992484490615 -2.8935583659259336 -3.094745199370061 -2.8280808482478008 -3.0809486512052948 -2.5345315908316017 -2.6886111566024526 -2.6592671043951794 -2.6271774774804246 -2.6569253116452858 -2.778793669450069 -1.6170018258849792 -2.5394040610502149 -2.5852337969917638 -2.4564593985145056 -2.9928248475366259 -1.7129716586469153 -2.8427462947516648 -2.5238614974803757 -2.8205663674254735 -2.5846982523243054 -2.6147613783439483 -2.8627332736253792 -2.4137453455087039 -2.6975651369413436 -2.9076651996370857 -1.9372250823623833 -2.3567119714340792 -2.8928222500957412 -2.7411935012311224 -1.8739867898766813 -2.7829556600304626 -3.0786370039047357 -1.9106250519821568 -2.9656359015502907 -2.3153893015477638 -2.8190045067817922 -2.7749986097686143 -2.3772197634329193 -3.3147887531207583 -2.6427704840153439 -2.8018536030886096 -2.8315909489097071 -2.3882909531039691 -2.7146926163821212 -2.8246336027866832 -1.9931033116714796 -2.4140557388583312 -2.876436511824723 -2.4361218173649384
leaf_weight=13729.587015699595 2951.6149810831994 1394.8042994849384 3644.0268046446145 4467.9795661270618 4014.7926814928651 4633.9302208144218 9976.5351210348308 9895.8706901147962 909.6218000985682 4449.1956079322845 12558.275503551587 6920.6557187847793 6112.3461777511984 1678.4566023536026 9497.6187036875635 3446.5815889108926 14263.789844360203 4524.2904822994024 6851.0805677734315 5696.041891714558 4873.4651867132634 2064.0280897319317 7130.1346808709204 2926.6292956266552 3341.5984951630235 3496.7919772285968 2489.1539973393083 6227.8805028889328 5583.1700730547309 5054.5656541623175 2594.5714878626168 570.56472506932914 8651.087660331279 3446.5646701343358 1101.6524015180767 1835.9813695438206 4371.3917232248932 5059.3985664751381 1705.5818451568484 1617.5446562822908 3578.3128717802465 502.45678035914898 11736.086854532361 4224.718973711133 5078.2172982413322 14588.55950731039 4132.1338493730873 8737.6648356691003 5045.2898383960128 2294.1149846855551 8822.0986531302333 520.26558024808764 3992.4401742238551 4356.0529791712761 1499.8398007564247 12621.29680175148 4448.0623141750693 3182.7517674081028 2924.704368090257 4179.0203811507672 2452.3414479065686 1394.8190406616777 1898.1901156362146
leaf_count=450863 50497 23691 65938 116743 51848 101539 236758 316660 18531 80041 426256 133877 191959 37506 303529 123737 437541 161209 170698 159130 133341 55159 194769 86927 23096 87445 64477 145631 189292 44474 80317 14071 264088 89251 29160 57548 98548 142230 54963 21321 76660 16031 340000 50509 151265 519194 52371 291593 104011 69945 261424 11329 160570 117772 45216 388024 98056 90534 89500 59727 55287 44090 43609
internal_value=-2.65445 -2.71812 -2.74895 -2.63888 -2.16122 -2.46991 -2.83713 -2.88933 -2.09181 -2.34963 -2.75687 -2.20321 -2.66141 -1.92463 -2.69359 -2.95181 -2.81918 -2.75526 -2.71052 -2.92358 -2.73341 -2.30889 -2.45259 -2.57839 -1.82264 -2.52057 -2.55852 -2.6342 -2.83509 -1.84678 -2.61659 -3.0183 -2.92361 -2.77787 -2.344 -2.60118 -2.56928 -2.75118 -3.15573 -2.19093 -2.55118 -2.42245 -2.80929 -1.98183 -2.9738 -3.01062 -1.98134 -2.89841 -2.40692 -2.63328 -2.71489 -1.97465 -3.21274 -2.53301 -2.5824 -2.78706 -2.46379 -2.85151 -2.71433 -2.09008 -2.27808 -2.66772 -2.62603
internal_weight=317968 285645 270667 120391 14978.2 49495.5 150276 110205 32322.9 30396.8 70896 22226.6 19098.7 9555.11 40070.7 75179.1 47022 35025.9 29931 66034.5 25812.6 15050.3 21768.6 5423.09 7876.66 15672.2 15390.4 23874 23900.5 10096.3 11548.8 5094.86 21209.4 24680.3 2496.46 16852.4 15016.4 14464.8 9144.6 8538.2 8954.23 4080.77 21233.7 7176.33 42134 28318.1 5041.76 13815.9 8542.08 10645 13290.1 4535.06 7439.02 10583.9 8350.92 18317.3 6512.09 13078.6 5413.86 8628.22 6096.37 8352.41 6957.59
internal_count=8671376 8146581 7883024 3246449 263557 1170645 4636575 3513060 524795 647218 2075804 409419 523427 123779 1123515 2488631 1434234 1024429 849149 2149361 743890 308413 507450 139778 86273 386225 390735 641570 736446 115376 306349 175280 690344 732780 52851 441955 384407 421888 339270 155198 226032 92691 643529 101006 1412915 970057 70902 442858 191456 285859 378167 63177 284307 263403 215914 547154 153215 407194 153977 139768 121225 229929 185839
is_linear=0
shrinkage=1


end of trees

feature_importances:
z_abs_25=7
z_28_c1=6
z_6_c1=4
z_8_c0=4
z_13_c0=3
z_15_c1=3
z_20_c0=3
z_diff_18=3
recon_error_c0=2
z_12_c0=2
z_20_c1=2
z_22_c0=2
z_24_c1=2
z_28_c0=2
z_29_c1=2
z_8_c1=2
err_ratio=1
z_10_c0=1
z_11_c1=1
z_14_c1=1
z_21_c1=1
z_24_c0=1
z_30_c0=1
z_30_c1=1
z_3_c0=1
z_4_c0=1
z_9_c0=1
z_abs_1=1
z_diff_15=1
z_diff_4=1

parameters:
[boosting: gbdt]
[objective: binary]
[metric: auc,binary_logloss]
[tree_learner: serial]
[device_type: cpu]
[data_sample_strategy: bagging]
[data: ]
[valid: ]
[num_iterations: 5000]
[learning_rate: 0.05]
[num_leaves: 64]
[num_threads: 0]
[seed: 0]
[deterministic: 0]
[force_col_wise: 0]
[force_row_wise: 0]
[histogram_pool_size: -1]
[max_depth: -1]
[min_data_in_leaf: 200]
[min_sum_hessian_in_leaf: 0.001]
[bagging_fraction: 0.9]
[pos_bagging_fraction: 1]
[neg_bagging_fraction: 1]
[bagging_freq: 1]
[bagging_seed: 3]
[bagging_by_query: 0]
[feature_fraction: 0.9]
[feature_fraction_bynode: 1]
[feature_fraction_seed: 2]
[extra_trees: 0]
[extra_seed: 6]
[early_stopping_round: 0]
[early_stopping_min_delta: 0]
[first_metric_only: 0]
[max_delta_step: 0]
[lambda_l1: 0]
[lambda_l2: 1]
[linear_lambda: 0]
[min_gain_to_split: 0]
[drop_rate: 0.1]
[max_drop: 50]
[skip_drop: 0.5]
[xgboost_dart_mode: 0]
[uniform_drop: 0]
[drop_seed: 4]
[top_rate: 0.2]
[other_rate: 0.1]
[min_data_per_group: 100]
[max_cat_threshold: 32]
[cat_l2: 10]
[cat_smooth: 10]
[max_cat_to_onehot: 4]
[top_k: 20]
[monotone_constraints: ]
[monotone_constraints_method: basic]
[monotone_penalty: 0]
[feature_contri: ]
[forcedsplits_filename: ]
[refit_decay_rate: 0.9]
[cegb_tradeoff: 1]
[cegb_penalty_split: 0]
[cegb_penalty_feature_lazy: ]
[cegb_penalty_feature_coupled: ]
[path_smooth: 0]
[interaction_constraints: ]
[verbosity: -1]
[saved_feature_importance_type: 0]
[use_quantized_grad: 0]
[num_grad_quant_bins: 4]
[quant_train_renew_leaf: 0]
[stochastic_rounding: 1]
[linear_tree: 0]
[max_bin: 255]
[max_bin_by_feature: ]
[min_data_in_bin: 3]
[bin_construct_sample_cnt: 200000]
[data_random_seed: 1]
[is_enable_sparse: 1]
[enable_bundle: 1]
[use_missing: 1]
[zero_as_missing: 0]
[feature_pre_filter: 1]
[pre_partition: 0]
[two_round: 0]
[header: 0]
[label_column: ]
[weight_column: ]
[group_column: ]
[ignore_column: ]
[categorical_feature: ]
[forcedbins_filename: ]
[precise_float_parser: 0]
[parser_config_file: ]
[objective_seed: 5]
[num_class: 1]
[is_unbalance: 0]
[scale_pos_weight: 51.4906]
[sigmoid: 1]
[boost_from_average: 1]
[reg_sqrt: 0]
[alpha: 0.9]
[fair_c: 1]
[poisson_max_delta_step: 0.7]
[tweedie_variance_power: 1.5]
[lambdarank_truncation_level: 30]
[lambdarank_norm: 1]
[label_gain: ]
[lambdarank_position_bias_regularization: 0]
[eval_at: ]
[multi_error_top_k: 1]
[auc_mu_weights: ]
[num_machines: 1]
[local_listen_port: 12400]
[time_out: 120]
[machine_list_filename: ]
[machines: ]
[gpu_platform_id: -1]
[gpu_device_id: -1]
[gpu_use_dp: 0]
[num_gpu: 1]

end of parameters

pandas_categorical:null
